<?xml version="1.0"?>
<opencv_storage>
<cascade>
  <stageType>BOOST</stageType>
  <featureType>HAAR</featureType>
  <height>24</height>
  <width>24</width>
  <stageParams>
    <boostType>GAB</boostType>
    <minHitRate>9.9500000476837158e-01</minHitRate>
    <maxFalseAlarm>5.0000000000000000e-01</maxFalseAlarm>
    <weightTrimRate>9.4999999999999996e-01</weightTrimRate>
    <maxDepth>1</maxDepth>
    <maxWeakCount>100</maxWeakCount></stageParams>
  <featureParams>
    <maxCatCount>0</maxCatCount>
    <featSize>1</featSize>
    <mode>BASIC</mode></featureParams>
  <stageNum>19</stageNum>
  <stages>
    <!-- stage 0 -->
    <_>
      <maxWeakCount>1</maxWeakCount>
      <stageThreshold>9.7432100772857666e-01</stageThreshold>
      <weakClassifiers>
        <_>
          <internalNodes>
            0 -1 10 3.7140071392059326e-02</internalNodes>
          <leafValues>
            -9.8857140541076660e-01 9.7432100772857666e-01</leafValues></_></weakClassifiers></_>
    <!-- stage 1 -->
    <_>
      <maxWeakCount>1</maxWeakCount>
      <stageThreshold>9.0835320949554443e-01</stageThreshold>
      <weakClassifiers>
        <_>
          <internalNodes>
            0 -1 31 -6.7980238236486912e-04</internalNodes>
          <leafValues>
            -9.8095238208770752e-01 9.0835320949554443e-01</leafValues></_></weakClassifiers></_>
    <!-- stage 2 -->
    <_>
      <maxWeakCount>1</maxWeakCount>
      <stageThreshold>9.2560386657714844e-01</stageThreshold>
      <weakClassifiers>
        <_>
          <internalNodes>
            0 -1 35 4.7373407142003998e-05</internalNodes>
          <leafValues>
            9.2560386657714844e-01 -8.9230769872665405e-01</leafValues></_></weakClassifiers></_>
    <!-- stage 3 -->
    <_>
      <maxWeakCount>3</maxWeakCount>
      <stageThreshold>4.8617511987686157e-01</stageThreshold>
      <weakClassifiers>
        <_>
          <internalNodes>
            0 -1 18 -1.6653109341859818e-02</internalNodes>
          <leafValues>
            8.9985692501068115e-01 -8.4466022253036499e-01</leafValues></_>
        <_>
          <internalNodes>
            0 -1 11 3.6457772366702557e-03</internalNodes>
          <leafValues>
            -8.8096386194229126e-01 7.7851474285125732e-01</leafValues></_>
        <_>
          <internalNodes>
            0 -1 37 9.0756788267754018e-05</internalNodes>
          <leafValues>
            4.6728202700614929e-01 -9.2190587520599365e-01</leafValues></_></weakClassifiers></_>
    <!-- stage 4 -->
    <_>
      <maxWeakCount>1</maxWeakCount>
      <stageThreshold>9.2767596244812012e-01</stageThreshold>
      <weakClassifiers>
        <_>
          <internalNodes>
            0 -1 38 -3.4921127371490002e-04</internalNodes>
          <leafValues>
            -9.8412698507308960e-01 9.2767596244812012e-01</leafValues></_></weakClassifiers></_>
    <!-- stage 5 -->
    <_>
      <maxWeakCount>1</maxWeakCount>
      <stageThreshold>9.0922123193740845e-01</stageThreshold>
      <weakClassifiers>
        <_>
          <internalNodes>
            0 -1 43 1.8433696823194623e-04</internalNodes>
          <leafValues>
            9.0922123193740845e-01 -9.6261680126190186e-01</leafValues></_></weakClassifiers></_>
    <!-- stage 6 -->
    <_>
      <maxWeakCount>3</maxWeakCount>
      <stageThreshold>-2.3598566651344299e-01</stageThreshold>
      <weakClassifiers>
        <_>
          <internalNodes>
            0 -1 22 9.2177692567929626e-04</internalNodes>
          <leafValues>
            -7.6470589637756348e-01 9.2248064279556274e-01</leafValues></_>
        <_>
          <internalNodes>
            0 -1 12 6.4389677718281746e-03</internalNodes>
          <leafValues>
            -7.5897181034088135e-01 7.6286387443542480e-01</leafValues></_>
        <_>
          <internalNodes>
            0 -1 3 -5.3600813262164593e-03</internalNodes>
          <leafValues>
            7.8621321916580200e-01 -3.9949449896812439e-01</leafValues></_></weakClassifiers></_>
    <!-- stage 7 -->
    <_>
      <maxWeakCount>3</maxWeakCount>
      <stageThreshold>4.4091248512268066e-01</stageThreshold>
      <weakClassifiers>
        <_>
          <internalNodes>
            0 -1 9 2.1188411861658096e-02</internalNodes>
          <leafValues>
            -8.2905983924865723e-01 9.1070568561553955e-01</leafValues></_>
        <_>
          <internalNodes>
            0 -1 54 2.3182845325209200e-04</internalNodes>
          <leafValues>
            7.4828612804412842e-01 -6.9908875226974487e-01</leafValues></_>
        <_>
          <internalNodes>
            0 -1 24 -2.2598702926188707e-03</internalNodes>
          <leafValues>
            5.2168613672256470e-01 -8.3457523584365845e-01</leafValues></_></weakClassifiers></_>
    <!-- stage 8 -->
    <_>
      <maxWeakCount>6</maxWeakCount>
      <stageThreshold>-6.0184281319379807e-02</stageThreshold>
      <weakClassifiers>
        <_>
          <internalNodes>
            0 -1 17 4.0635619312524796e-02</internalNodes>
          <leafValues>
            8.9196938276290894e-01 -6.1111110448837280e-01</leafValues></_>
        <_>
          <internalNodes>
            0 -1 25 3.7432945100590587e-04</internalNodes>
          <leafValues>
            7.5303542613983154e-01 -5.0407356023788452e-01</leafValues></_>
        <_>
          <internalNodes>
            0 -1 13 5.1982598379254341e-03</internalNodes>
          <leafValues>
            -8.6262995004653931e-01 4.6091172099113464e-01</leafValues></_>
        <_>
          <internalNodes>
            0 -1 4 -6.5663913264870644e-03</internalNodes>
          <leafValues>
            5.1709544658660889e-01 -6.0738480091094971e-01</leafValues></_>
        <_>
          <internalNodes>
            0 -1 50 -2.0063016563653946e-03</internalNodes>
          <leafValues>
            8.3749186992645264e-01 -4.3197998404502869e-01</leafValues></_>
        <_>
          <internalNodes>
            0 -1 52 1.1524862202350050e-04</internalNodes>
          <leafValues>
            3.6398163437843323e-01 -9.3803089857101440e-01</leafValues></_></weakClassifiers></_>
    <!-- stage 9 -->
    <_>
      <maxWeakCount>4</maxWeakCount>
      <stageThreshold>1.7893074452877045e-01</stageThreshold>
      <weakClassifiers>
        <_>
          <internalNodes>
            0 -1 37 1.1928923777304590e-04</internalNodes>
          <leafValues>
            8.8973385095596313e-01 -7.5000000000000000e-01</leafValues></_>
        <_>
          <internalNodes>
            0 -1 21 1.2633359991014004e-02</internalNodes>
          <leafValues>
            -6.4595502614974976e-01 7.0905089378356934e-01</leafValues></_>
        <_>
          <internalNodes>
            0 -1 57 6.7655323073267937e-03</internalNodes>
          <leafValues>
            -5.7402169704437256e-01 6.2965601682662964e-01</leafValues></_>
        <_>
          <internalNodes>
            0 -1 33 -1.7032545059919357e-02</internalNodes>
          <leafValues>
            5.0917363166809082e-01 -6.3019943237304688e-01</leafValues></_></weakClassifiers></_>
    <!-- stage 10 -->
    <_>
      <maxWeakCount>4</maxWeakCount>
      <stageThreshold>-1.0348936915397644e-01</stageThreshold>
      <weakClassifiers>
        <_>
          <internalNodes>
            0 -1 15 1.4245452359318733e-02</internalNodes>
          <leafValues>
            8.8301885128021240e-01 -8.9999997615814209e-01</leafValues></_>
        <_>
          <internalNodes>
            0 -1 27 2.2867457009851933e-03</internalNodes>
          <leafValues>
            -6.5839076042175293e-01 8.0180358886718750e-01</leafValues></_>
        <_>
          <internalNodes>
            0 -1 47 -2.1183013450354338e-04</internalNodes>
          <leafValues>
            -7.8159064054489136e-01 4.5242363214492798e-01</leafValues></_>
        <_>
          <internalNodes>
            0 -1 56 -3.6657582968473434e-03</internalNodes>
          <leafValues>
            3.8734123110771179e-01 -7.8054112195968628e-01</leafValues></_></weakClassifiers></_>
    <!-- stage 11 -->
    <_>
      <maxWeakCount>6</maxWeakCount>
      <stageThreshold>-4.3033957481384277e-02</stageThreshold>
      <weakClassifiers>
        <_>
          <internalNodes>
            0 -1 11 3.0081146396696568e-03</internalNodes>
          <leafValues>
            -6.8141591548919678e-01 8.9937710762023926e-01</leafValues></_>
        <_>
          <internalNodes>
            0 -1 27 2.3764038924127817e-03</internalNodes>
          <leafValues>
            -6.3770890235900879e-01 7.4823141098022461e-01</leafValues></_>
        <_>
          <internalNodes>
            0 -1 20 2.0903912372887135e-03</internalNodes>
          <leafValues>
            -2.9615858197212219e-01 8.6080789566040039e-01</leafValues></_>
        <_>
          <internalNodes>
            0 -1 55 -1.7505280673503876e-02</internalNodes>
          <leafValues>
            6.0661828517913818e-01 -5.0515472888946533e-01</leafValues></_>
        <_>
          <internalNodes>
            0 -1 49 -2.0829772111028433e-03</internalNodes>
          <leafValues>
            9.5426732301712036e-01 -2.7293512225151062e-01</leafValues></_>
        <_>
          <internalNodes>
            0 -1 19 -1.5045765321701765e-03</internalNodes>
          <leafValues>
            9.6439898014068604e-01 -2.4370159208774567e-01</leafValues></_></weakClassifiers></_>
    <!-- stage 12 -->
    <_>
      <maxWeakCount>4</maxWeakCount>
      <stageThreshold>9.9757146835327148e-01</stageThreshold>
      <weakClassifiers>
        <_>
          <internalNodes>
            0 -1 16 6.3889948651194572e-03</internalNodes>
          <leafValues>
            8.7048333883285522e-01 -7.9710143804550171e-01</leafValues></_>
        <_>
          <internalNodes>
            0 -1 40 -3.1944172224029899e-04</internalNodes>
          <leafValues>
            -7.2085499763488770e-01 6.2532037496566772e-01</leafValues></_>
        <_>
          <internalNodes>
            0 -1 36 1.5943760517984629e-03</internalNodes>
          <leafValues>
            -7.9368597269058228e-01 4.4691500067710876e-01</leafValues></_>
        <_>
          <internalNodes>
            0 -1 53 3.0327439162647352e-05</internalNodes>
          <leafValues>
            4.0102812647819519e-01 -8.0012267827987671e-01</leafValues></_></weakClassifiers></_>
    <!-- stage 13 -->
    <_>
      <maxWeakCount>5</maxWeakCount>
      <stageThreshold>1.5703701972961426e-01</stageThreshold>
      <weakClassifiers>
        <_>
          <internalNodes>
            0 -1 14 6.9752172566950321e-03</internalNodes>
          <leafValues>
            -8.5714286565780640e-01 8.7323945760726929e-01</leafValues></_>
        <_>
          <internalNodes>
            0 -1 59 5.8686807751655579e-03</internalNodes>
          <leafValues>
            -2.4701103568077087e-01 7.9284358024597168e-01</leafValues></_>
        <_>
          <internalNodes>
            0 -1 42 -4.8508474719710648e-05</internalNodes>
          <leafValues>
            -6.3190150260925293e-01 5.0838088989257813e-01</leafValues></_>
        <_>
          <internalNodes>
            0 -1 51 2.2144424729049206e-03</internalNodes>
          <leafValues>
            -3.1507170200347900e-01 8.4622472524642944e-01</leafValues></_>
        <_>
          <internalNodes>
            0 -1 26 -2.5281438138335943e-03</internalNodes>
          <leafValues>
            4.8021534085273743e-01 -6.6250056028366089e-01</leafValues></_></weakClassifiers></_>
    <!-- stage 14 -->
    <_>
      <maxWeakCount>4</maxWeakCount>
      <stageThreshold>3.4494796395301819e-01</stageThreshold>
      <weakClassifiers>
        <_>
          <internalNodes>
            0 -1 42 -4.8980844439938664e-04</internalNodes>
          <leafValues>
            -4.0983605384826660e-01 8.9027911424636841e-01</leafValues></_>
        <_>
          <internalNodes>
            0 -1 58 2.4918406270444393e-03</internalNodes>
          <leafValues>
            -4.4990673661231995e-01 7.5892829895019531e-01</leafValues></_>
        <_>
          <internalNodes>
            0 -1 39 -6.1475327238440514e-03</internalNodes>
          <leafValues>
            5.9277611970901489e-01 -5.4081398248672485e-01</leafValues></_>
        <_>
          <internalNodes>
            0 -1 6 -2.8272725176066160e-03</internalNodes>
          <leafValues>
            6.1191463470458984e-01 -5.0038671493530273e-01</leafValues></_></weakClassifiers></_>
    <!-- stage 15 -->
    <_>
      <maxWeakCount>4</maxWeakCount>
      <stageThreshold>-8.1597521901130676e-02</stageThreshold>
      <weakClassifiers>
        <_>
          <internalNodes>
            0 -1 44 -6.3934538047760725e-04</internalNodes>
          <leafValues>
            -9.3333333730697632e-01 8.6728972196578979e-01</leafValues></_>
        <_>
          <internalNodes>
            0 -1 44 8.3536157035268843e-05</internalNodes>
          <leafValues>
            7.1296530961990356e-01 -4.6092897653579712e-01</leafValues></_>
        <_>
          <internalNodes>
            0 -1 60 4.1572311893105507e-03</internalNodes>
          <leafValues>
            -5.7660156488418579e-01 5.4640680551528931e-01</leafValues></_>
        <_>
          <internalNodes>
            0 -1 28 2.2765249013900757e-03</internalNodes>
          <leafValues>
            -4.0763628482818604e-01 8.4027290344238281e-01</leafValues></_></weakClassifiers></_>
    <!-- stage 16 -->
    <_>
      <maxWeakCount>5</maxWeakCount>
      <stageThreshold>-8.5587583482265472e-02</stageThreshold>
      <weakClassifiers>
        <_>
          <internalNodes>
            0 -1 46 1.9055433222092688e-04</internalNodes>
          <leafValues>
            8.7300091981887817e-01 -7.5675678253173828e-01</leafValues></_>
        <_>
          <internalNodes>
            0 -1 23 -2.1760459057986736e-03</internalNodes>
          <leafValues>
            6.0899227857589722e-01 -7.1855026483535767e-01</leafValues></_>
        <_>
          <internalNodes>
            0 -1 1 -3.1586794648319483e-03</internalNodes>
          <leafValues>
            6.4849460124969482e-01 -4.2052382230758667e-01</leafValues></_>
        <_>
          <internalNodes>
            0 -1 61 7.9542975872755051e-03</internalNodes>
          <leafValues>
            -5.3987807035446167e-01 5.5470436811447144e-01</leafValues></_>
        <_>
          <internalNodes>
            0 -1 41 2.2283548023551702e-03</internalNodes>
          <leafValues>
            -3.7421882152557373e-01 7.3851472139358521e-01</leafValues></_></weakClassifiers></_>
    <!-- stage 17 -->
    <_>
      <maxWeakCount>4</maxWeakCount>
      <stageThreshold>6.5243113040924072e-01</stageThreshold>
      <weakClassifiers>
        <_>
          <internalNodes>
            0 -1 8 -4.1564863175153732e-02</internalNodes>
          <leafValues>
            -1. 8.7003272771835327e-01</leafValues></_>
        <_>
          <internalNodes>
            0 -1 5 -1.0092070326209068e-02</internalNodes>
          <leafValues>
            7.6675283908843994e-01 -2.3033288121223450e-01</leafValues></_>
        <_>
          <internalNodes>
            0 -1 34 1.2092934412066825e-05</internalNodes>
          <leafValues>
            4.9773699045181274e-01 -6.2439173460006714e-01</leafValues></_>
        <_>
          <internalNodes>
            0 -1 2 -2.2734089288860559e-03</internalNodes>
          <leafValues>
            7.3057758808135986e-01 -3.5996270179748535e-01</leafValues></_></weakClassifiers></_>
    <!-- stage 18 -->
    <_>
      <maxWeakCount>7</maxWeakCount>
      <stageThreshold>1.9967960193753242e-02</stageThreshold>
      <weakClassifiers>
        <_>
          <internalNodes>
            0 -1 45 -9.8613975569605827e-04</internalNodes>
          <leafValues>
            -6.3218390941619873e-01 8.7789869308471680e-01</leafValues></_>
        <_>
          <internalNodes>
            0 -1 7 9.2555858194828033e-02</internalNodes>
          <leafValues>
            -3.8297173380851746e-01 7.0367223024368286e-01</leafValues></_>
        <_>
          <internalNodes>
            0 -1 29 -2.8437431901693344e-03</internalNodes>
          <leafValues>
            8.4085595607757568e-01 -3.1243610382080078e-01</leafValues></_>
        <_>
          <internalNodes>
            0 -1 0 1.5111709013581276e-02</internalNodes>
          <leafValues>
            -3.7579876184463501e-01 6.7644399404525757e-01</leafValues></_>
        <_>
          <internalNodes>
            0 -1 48 1.5229195123538375e-03</internalNodes>
          <leafValues>
            -3.6110982298851013e-01 8.1545144319534302e-01</leafValues></_>
        <_>
          <internalNodes>
            0 -1 30 1.1546504683792591e-03</internalNodes>
          <leafValues>
            -8.0886369943618774e-01 4.2719888687133789e-01</leafValues></_>
        <_>
          <internalNodes>
            0 -1 32 3.9847269363235682e-05</internalNodes>
          <leafValues>
            3.3100664615631104e-01 -9.1615194082260132e-01</leafValues></_></weakClassifiers></_></stages>
  <features>
    <_>
      <rects>
        <_>
          0 10 6 10 -1.</_>
        <_>
          0 10 3 5 2.</_>
        <_>
          3 15 3 5 2.</_></rects>
      <tilted>0</tilted></_>
    <_>
      <rects>
        <_>
          0 13 6 1 -1.</_>
        <_>
          3 13 3 1 2.</_></rects>
      <tilted>0</tilted></_>
    <_>
      <rects>
        <_>
          1 11 2 3 -1.</_>
        <_>
          2 11 1 3 2.</_></rects>
      <tilted>0</tilted></_>
    <_>
      <rects>
        <_>
          1 11 4 4 -1.</_>
        <_>
          3 11 2 4 2.</_></rects>
      <tilted>0</tilted></_>
    <_>
      <rects>
        <_>
          2 10 6 3 -1.</_>
        <_>
          4 10 2 3 3.</_></rects>
      <tilted>0</tilted></_>
    <_>
      <rects>
        <_>
          2 11 6 6 -1.</_>
        <_>
          4 11 2 6 3.</_></rects>
      <tilted>0</tilted></_>
    <_>
      <rects>
        <_>
          3 8 2 10 -1.</_>
        <_>
          4 8 1 10 2.</_></rects>
      <tilted>0</tilted></_>
    <_>
      <rects>
        <_>
          3 8 21 9 -1.</_>
        <_>
          10 8 7 9 3.</_></rects>
      <tilted>0</tilted></_>
    <_>
      <rects>
        <_>
          3 9 17 6 -1.</_>
        <_>
          3 12 17 3 2.</_></rects>
      <tilted>0</tilted></_>
    <_>
      <rects>
        <_>
          4 9 10 6 -1.</_>
        <_>
          9 9 5 6 2.</_></rects>
      <tilted>0</tilted></_>
    <_>
      <rects>
        <_>
          4 9 15 6 -1.</_>
        <_>
          9 9 5 6 3.</_></rects>
      <tilted>0</tilted></_>
    <_>
      <rects>
        <_>
          5 9 12 6 -1.</_>
        <_>
          11 9 6 6 2.</_></rects>
      <tilted>0</tilted></_>
    <_>
      <rects>
        <_>
          6 8 4 9 -1.</_>
        <_>
          8 8 2 9 2.</_></rects>
      <tilted>0</tilted></_>
    <_>
      <rects>
        <_>
          6 8 10 8 -1.</_>
        <_>
          11 8 5 8 2.</_></rects>
      <tilted>0</tilted></_>
    <_>
      <rects>
        <_>
          6 9 12 2 -1.</_>
        <_>
          10 9 4 2 3.</_></rects>
      <tilted>0</tilted></_>
    <_>
      <rects>
        <_>
          6 9 11 6 -1.</_>
        <_>
          6 12 11 3 2.</_></rects>
      <tilted>0</tilted></_>
    <_>
      <rects>
        <_>
          7 9 10 6 -1.</_>
        <_>
          12 9 5 6 2.</_></rects>
      <tilted>0</tilted></_>
    <_>
      <rects>
        <_>
          8 7 15 10 -1.</_>
        <_>
          13 7 5 10 3.</_></rects>
      <tilted>0</tilted></_>
    <_>
      <rects>
        <_>
          8 10 12 5 -1.</_>
        <_>
          14 10 6 5 2.</_></rects>
      <tilted>0</tilted></_>
    <_>
      <rects>
        <_>
          8 11 2 2 -1.</_>
        <_>
          8 11 1 1 2.</_>
        <_>
          9 12 1 1 2.</_></rects>
      <tilted>0</tilted></_>
    <_>
      <rects>
        <_>
          8 12 4 3 -1.</_>
        <_>
          8 13 4 1 3.</_></rects>
      <tilted>0</tilted></_>
    <_>
      <rects>
        <_>
          9 4 6 9 -1.</_>
        <_>
          9 7 6 3 3.</_></rects>
      <tilted>0</tilted></_>
    <_>
      <rects>
        <_>
          9 6 5 6 -1.</_>
        <_>
          9 8 5 2 3.</_></rects>
      <tilted>0</tilted></_>
    <_>
      <rects>
        <_>
          9 8 5 6 -1.</_>
        <_>
          9 11 5 3 2.</_></rects>
      <tilted>0</tilted></_>
    <_>
      <rects>
        <_>
          9 8 6 4 -1.</_>
        <_>
          9 10 6 2 2.</_></rects>
      <tilted>0</tilted></_>
    <_>
      <rects>
        <_>
          9 9 6 1 -1.</_>
        <_>
          11 9 2 1 3.</_></rects>
      <tilted>0</tilted></_>
    <_>
      <rects>
        <_>
          9 9 3 4 -1.</_>
        <_>
          9 11 3 2 2.</_></rects>
      <tilted>0</tilted></_>
    <_>
      <rects>
        <_>
          9 10 6 6 -1.</_>
        <_>
          9 13 6 3 2.</_></rects>
      <tilted>0</tilted></_>
    <_>
      <rects>
        <_>
          9 11 4 2 -1.</_>
        <_>
          11 11 2 2 2.</_></rects>
      <tilted>0</tilted></_>
    <_>
      <rects>
        <_>
          9 11 4 6 -1.</_>
        <_>
          9 11 2 3 2.</_>
        <_>
          11 14 2 3 2.</_></rects>
      <tilted>0</tilted></_>
    <_>
      <rects>
        <_>
          9 12 5 4 -1.</_>
        <_>
          9 14 5 2 2.</_></rects>
      <tilted>0</tilted></_>
    <_>
      <rects>
        <_>
          9 13 4 2 -1.</_>
        <_>
          9 14 4 1 2.</_></rects>
      <tilted>0</tilted></_>
    <_>
      <rects>
        <_>
          9 14 5 2 -1.</_>
        <_>
          9 15 5 1 2.</_></rects>
      <tilted>0</tilted></_>
    <_>
      <rects>
        <_>
          9 14 6 8 -1.</_>
        <_>
          9 18 6 4 2.</_></rects>
      <tilted>0</tilted></_>
    <_>
      <rects>
        <_>
          10 7 3 4 -1.</_>
        <_>
          10 9 3 2 2.</_></rects>
      <tilted>0</tilted></_>
    <_>
      <rects>
        <_>
          10 9 4 2 -1.</_>
        <_>
          10 10 4 1 2.</_></rects>
      <tilted>0</tilted></_>
    <_>
      <rects>
        <_>
          10 12 5 4 -1.</_>
        <_>
          10 14 5 2 2.</_></rects>
      <tilted>0</tilted></_>
    <_>
      <rects>
        <_>
          10 14 2 1 -1.</_>
        <_>
          11 14 1 1 2.</_></rects>
      <tilted>0</tilted></_>
    <_>
      <rects>
        <_>
          10 14 4 1 -1.</_>
        <_>
          12 14 2 1 2.</_></rects>
      <tilted>0</tilted></_>
    <_>
      <rects>
        <_>
          11 6 1 18 -1.</_>
        <_>
          11 15 1 9 2.</_></rects>
      <tilted>0</tilted></_>
    <_>
      <rects>
        <_>
          11 9 4 1 -1.</_>
        <_>
          13 9 2 1 2.</_></rects>
      <tilted>0</tilted></_>
    <_>
      <rects>
        <_>
          11 11 3 2 -1.</_>
        <_>
          12 11 1 2 3.</_></rects>
      <tilted>0</tilted></_>
    <_>
      <rects>
        <_>
          11 11 2 2 -1.</_>
        <_>
          11 12 2 1 2.</_></rects>
      <tilted>0</tilted></_>
    <_>
      <rects>
        <_>
          11 14 2 1 -1.</_>
        <_>
          12 14 1 1 2.</_></rects>
      <tilted>0</tilted></_>
    <_>
      <rects>
        <_>
          12 8 3 2 -1.</_>
        <_>
          12 9 3 1 2.</_></rects>
      <tilted>0</tilted></_>
    <_>
      <rects>
        <_>
          12 8 4 2 -1.</_>
        <_>
          12 9 4 1 2.</_></rects>
      <tilted>0</tilted></_>
    <_>
      <rects>
        <_>
          12 9 2 1 -1.</_>
        <_>
          13 9 1 1 2.</_></rects>
      <tilted>0</tilted></_>
    <_>
      <rects>
        <_>
          12 9 1 2 -1.</_>
        <_>
          12 10 1 1 2.</_></rects>
      <tilted>0</tilted></_>
    <_>
      <rects>
        <_>
          12 11 3 1 -1.</_>
        <_>
          13 11 1 1 3.</_></rects>
      <tilted>0</tilted></_>
    <_>
      <rects>
        <_>
          12 11 2 2 -1.</_>
        <_>
          12 11 1 1 2.</_>
        <_>
          13 12 1 1 2.</_></rects>
      <tilted>0</tilted></_>
    <_>
      <rects>
        <_>
          12 11 2 2 -1.</_>
        <_>
          13 11 1 2 2.</_></rects>
      <tilted>0</tilted></_>
    <_>
      <rects>
        <_>
          12 12 3 1 -1.</_>
        <_>
          13 12 1 1 3.</_></rects>
      <tilted>0</tilted></_>
    <_>
      <rects>
        <_>
          12 13 2 1 -1.</_>
        <_>
          13 13 1 1 2.</_></rects>
      <tilted>0</tilted></_>
    <_>
      <rects>
        <_>
          12 13 1 2 -1.</_>
        <_>
          12 14 1 1 2.</_></rects>
      <tilted>0</tilted></_>
    <_>
      <rects>
        <_>
          12 14 3 1 -1.</_>
        <_>
          13 14 1 1 3.</_></rects>
      <tilted>0</tilted></_>
    <_>
      <rects>
        <_>
          13 1 6 12 -1.</_>
        <_>
          13 1 3 6 2.</_>
        <_>
          16 7 3 6 2.</_></rects>
      <tilted>0</tilted></_>
    <_>
      <rects>
        <_>
          15 11 6 2 -1.</_>
        <_>
          17 11 2 2 3.</_></rects>
      <tilted>0</tilted></_>
    <_>
      <rects>
        <_>
          17 7 4 10 -1.</_>
        <_>
          19 7 2 10 2.</_></rects>
      <tilted>0</tilted></_>
    <_>
      <rects>
        <_>
          18 10 4 4 -1.</_>
        <_>
          20 10 2 4 2.</_></rects>
      <tilted>0</tilted></_>
    <_>
      <rects>
        <_>
          19 10 4 4 -1.</_>
        <_>
          21 10 2 4 2.</_></rects>
      <tilted>0</tilted></_>
    <_>
      <rects>
        <_>
          19 11 4 4 -1.</_>
        <_>
          21 11 2 4 2.</_></rects>
      <tilted>0</tilted></_>
    <_>
      <rects>
        <_>
          22 0 1 24 -1.</_>
        <_>
          22 8 1 8 3.</_></rects>
      <tilted>0</tilted></_></features></cascade>
</opencv_storage>
